#pragma once
// #include <cstdarg>
#include <stdint.h>
namespace Eloquent {
    namespace ML {
        namespace Port {
            class RandomForest {
                public:
                    /**
                    * Predict class for features vector
                    */
                    int predict(float *x) {
                        uint8_t votes[3] = { 0 };
                        // tree #1
                        if (x[2] <= 2.449999988079071) {
                            votes[0] += 1;
                        }

                        else {
                            if (x[3] <= 1.75) {
                                if (x[2] <= 5.049999952316284) {
                                    if (x[0] <= 4.950000047683716) {
                                        if (x[1] <= 2.450000047683716) {
                                            votes[2] += 1;
                                        }

                                        else {
                                            votes[1] += 1;
                                        }
                                    }

                                    else {
                                        votes[2] += 1;
                                    }
                                }

                                else {
                                    votes[1] += 1;
                                }
                            }

                            else {
                                if (x[2] <= 4.900000095367432) {
                                    if (x[1] <= 3.100000023841858) {
                                        votes[1] += 1;
                                    }

                                    else {
                                        votes[2] += 1;
                                    }
                                }

                                else {
                                    votes[1] += 1;
                                }
                            }
                        }

                        // tree #2
                        if (x[2] <= 2.350000023841858) {
                            votes[0] += 1;
                        }

                        else {
                            if (x[0] <= 7.099999904632568) {
                                if (x[2] <= 4.950000047683716) {
                                    if (x[0] <= 5.0) {
                                        if (x[2] <= 3.899999976158142) {
                                            votes[2] += 1;
                                        }

                                        else {
                                            votes[1] += 1;
                                        }
                                    }

                                    else {
                                        if (x[3] <= 1.699999988079071) {
                                            votes[2] += 1;
                                        }

                                        else {
                                            if (x[0] <= 5.950000047683716) {
                                                votes[2] += 1;
                                            }

                                            else {
                                                votes[1] += 1;
                                            }
                                        }
                                    }
                                }

                                else {
                                    if (x[3] <= 1.75) {
                                        if (x[1] <= 2.450000047683716) {
                                            votes[1] += 1;
                                        }

                                        else {
                                            votes[2] += 1;
                                        }
                                    }

                                    else {
                                        votes[1] += 1;
                                    }
                                }
                            }

                            else {
                                votes[1] += 1;
                            }
                        }

                        // tree #3
                        if (x[3] <= 0.800000011920929) {
                            votes[0] += 1;
                        }

                        else {
                            if (x[2] <= 4.75) {
                                if (x[3] <= 1.6500000357627869) {
                                    votes[2] += 1;
                                }

                                else {
                                    votes[1] += 1;
                                }
                            }

                            else {
                                if (x[2] <= 5.049999952316284) {
                                    if (x[1] <= 2.75) {
                                        votes[1] += 1;
                                    }

                                    else {
                                        if (x[0] <= 6.449999809265137) {
                                            votes[1] += 1;
                                        }

                                        else {
                                            votes[2] += 1;
                                        }
                                    }
                                }

                                else {
                                    votes[1] += 1;
                                }
                            }
                        }

                        // tree #4
                        if (x[3] <= 0.800000011920929) {
                            votes[0] += 1;
                        }

                        else {
                            if (x[2] <= 4.8500001430511475) {
                                if (x[3] <= 1.6500000357627869) {
                                    votes[2] += 1;
                                }

                                else {
                                    if (x[1] <= 3.0) {
                                        votes[1] += 1;
                                    }

                                    else {
                                        votes[2] += 1;
                                    }
                                }
                            }

                            else {
                                if (x[2] <= 5.049999952316284) {
                                    if (x[0] <= 6.5) {
                                        votes[1] += 1;
                                    }

                                    else {
                                        votes[2] += 1;
                                    }
                                }

                                else {
                                    if (x[3] <= 1.699999988079071) {
                                        if (x[0] <= 6.049999952316284) {
                                            votes[2] += 1;
                                        }

                                        else {
                                            votes[1] += 1;
                                        }
                                    }

                                    else {
                                        votes[1] += 1;
                                    }
                                }
                            }
                        }

                        // tree #5
                        if (x[2] <= 2.449999988079071) {
                            votes[0] += 1;
                        }

                        else {
                            if (x[0] <= 5.950000047683716) {
                                if (x[0] <= 4.950000047683716) {
                                    votes[1] += 1;
                                }

                                else {
                                    if (x[3] <= 1.899999976158142) {
                                        votes[2] += 1;
                                    }

                                    else {
                                        votes[1] += 1;
                                    }
                                }
                            }

                            else {
                                if (x[2] <= 4.75) {
                                    votes[2] += 1;
                                }

                                else {
                                    if (x[1] <= 2.850000023841858) {
                                        if (x[2] <= 4.8500001430511475) {
                                            votes[2] += 1;
                                        }

                                        else {
                                            if (x[3] <= 1.699999988079071) {
                                                if (x[3] <= 1.550000011920929) {
                                                    votes[1] += 1;
                                                }

                                                else {
                                                    votes[2] += 1;
                                                }
                                            }

                                            else {
                                                votes[1] += 1;
                                            }
                                        }
                                    }

                                    else {
                                        if (x[3] <= 1.75) {
                                            if (x[3] <= 1.6500000357627869) {
                                                votes[1] += 1;
                                            }

                                            else {
                                                votes[2] += 1;
                                            }
                                        }

                                        else {
                                            votes[1] += 1;
                                        }
                                    }
                                }
                            }
                        }

                        // tree #6
                        if (x[2] <= 2.599999964237213) {
                            votes[0] += 1;
                        }

                        else {
                            if (x[2] <= 4.75) {
                                if (x[3] <= 1.6500000357627869) {
                                    votes[2] += 1;
                                }

                                else {
                                    votes[1] += 1;
                                }
                            }

                            else {
                                if (x[3] <= 1.75) {
                                    if (x[1] <= 2.649999976158142) {
                                        votes[1] += 1;
                                    }

                                    else {
                                        votes[2] += 1;
                                    }
                                }

                                else {
                                    if (x[2] <= 4.8500001430511475) {
                                        if (x[1] <= 3.100000023841858) {
                                            votes[1] += 1;
                                        }

                                        else {
                                            votes[2] += 1;
                                        }
                                    }

                                    else {
                                        votes[1] += 1;
                                    }
                                }
                            }
                        }

                        // tree #7
                        if (x[0] <= 5.549999952316284) {
                            if (x[1] <= 2.850000023841858) {
                                if (x[3] <= 0.6500000059604645) {
                                    votes[0] += 1;
                                }

                                else {
                                    if (x[3] <= 1.550000011920929) {
                                        votes[2] += 1;
                                    }

                                    else {
                                        votes[1] += 1;
                                    }
                                }
                            }

                            else {
                                votes[0] += 1;
                            }
                        }

                        else {
                            if (x[0] <= 6.6499998569488525) {
                                if (x[2] <= 4.8500001430511475) {
                                    if (x[3] <= 0.7000000029802322) {
                                        votes[0] += 1;
                                    }

                                    else {
                                        if (x[3] <= 1.699999988079071) {
                                            votes[2] += 1;
                                        }

                                        else {
                                            if (x[1] <= 3.0) {
                                                votes[1] += 1;
                                            }

                                            else {
                                                votes[2] += 1;
                                            }
                                        }
                                    }
                                }

                                else {
                                    if (x[2] <= 4.950000047683716) {
                                        if (x[3] <= 1.649999976158142) {
                                            votes[2] += 1;
                                        }

                                        else {
                                            votes[1] += 1;
                                        }
                                    }

                                    else {
                                        votes[1] += 1;
                                    }
                                }
                            }

                            else {
                                if (x[2] <= 5.0) {
                                    votes[2] += 1;
                                }

                                else {
                                    votes[1] += 1;
                                }
                            }
                        }

                        // tree #8
                        if (x[2] <= 2.599999964237213) {
                            votes[0] += 1;
                        }

                        else {
                            if (x[0] <= 7.150000095367432) {
                                if (x[0] <= 5.549999952316284) {
                                    votes[2] += 1;
                                }

                                else {
                                    if (x[2] <= 4.8500001430511475) {
                                        votes[2] += 1;
                                    }

                                    else {
                                        if (x[3] <= 1.75) {
                                            if (x[0] <= 6.5) {
                                                if (x[2] <= 4.950000047683716) {
                                                    votes[2] += 1;
                                                }

                                                else {
                                                    if (x[1] <= 2.649999976158142) {
                                                        votes[1] += 1;
                                                    }

                                                    else {
                                                        if (x[0] <= 6.150000095367432) {
                                                            votes[2] += 1;
                                                        }

                                                        else {
                                                            votes[1] += 1;
                                                        }
                                                    }
                                                }
                                            }

                                            else {
                                                votes[2] += 1;
                                            }
                                        }

                                        else {
                                            votes[1] += 1;
                                        }
                                    }
                                }
                            }

                            else {
                                votes[1] += 1;
                            }
                        }

                        // tree #9
                        if (x[3] <= 0.800000011920929) {
                            votes[0] += 1;
                        }

                        else {
                            if (x[2] <= 4.950000047683716) {
                                if (x[3] <= 1.6500000357627869) {
                                    votes[2] += 1;
                                }

                                else {
                                    votes[1] += 1;
                                }
                            }

                            else {
                                if (x[3] <= 1.75) {
                                    if (x[3] <= 1.600000023841858) {
                                        votes[1] += 1;
                                    }

                                    else {
                                        votes[2] += 1;
                                    }
                                }

                                else {
                                    votes[1] += 1;
                                }
                            }
                        }

                        // tree #10
                        if (x[2] <= 2.599999964237213) {
                            votes[0] += 1;
                        }

                        else {
                            if (x[2] <= 4.8500001430511475) {
                                if (x[3] <= 1.6500000357627869) {
                                    votes[2] += 1;
                                }

                                else {
                                    if (x[1] <= 3.100000023841858) {
                                        votes[1] += 1;
                                    }

                                    else {
                                        votes[2] += 1;
                                    }
                                }
                            }

                            else {
                                if (x[2] <= 5.049999952316284) {
                                    if (x[3] <= 1.75) {
                                        votes[2] += 1;
                                    }

                                    else {
                                        votes[1] += 1;
                                    }
                                }

                                else {
                                    votes[1] += 1;
                                }
                            }
                        }

                        // tree #11
                        if (x[3] <= 0.800000011920929) {
                            votes[0] += 1;
                        }

                        else {
                            if (x[0] <= 6.25) {
                                if (x[2] <= 4.75) {
                                    if (x[0] <= 5.049999952316284) {
                                        if (x[2] <= 3.899999976158142) {
                                            votes[2] += 1;
                                        }

                                        else {
                                            votes[1] += 1;
                                        }
                                    }

                                    else {
                                        votes[2] += 1;
                                    }
                                }

                                else {
                                    if (x[0] <= 5.900000095367432) {
                                        votes[1] += 1;
                                    }

                                    else {
                                        if (x[3] <= 1.699999988079071) {
                                            votes[2] += 1;
                                        }

                                        else {
                                            votes[1] += 1;
                                        }
                                    }
                                }
                            }

                            else {
                                if (x[2] <= 4.950000047683716) {
                                    if (x[1] <= 2.75) {
                                        if (x[1] <= 2.5) {
                                            votes[2] += 1;
                                        }

                                        else {
                                            votes[1] += 1;
                                        }
                                    }

                                    else {
                                        votes[2] += 1;
                                    }
                                }

                                else {
                                    if (x[3] <= 1.75) {
                                        if (x[2] <= 5.049999952316284) {
                                            votes[2] += 1;
                                        }

                                        else {
                                            votes[1] += 1;
                                        }
                                    }

                                    else {
                                        votes[1] += 1;
                                    }
                                }
                            }
                        }

                        // tree #12
                        if (x[0] <= 5.549999952316284) {
                            if (x[3] <= 0.7000000029802322) {
                                votes[0] += 1;
                            }

                            else {
                                if (x[2] <= 4.450000047683716) {
                                    votes[2] += 1;
                                }

                                else {
                                    votes[1] += 1;
                                }
                            }
                        }

                        else {
                            if (x[2] <= 4.8500001430511475) {
                                if (x[3] <= 0.6000000014901161) {
                                    votes[0] += 1;
                                }

                                else {
                                    if (x[2] <= 4.75) {
                                        votes[2] += 1;
                                    }

                                    else {
                                        if (x[3] <= 1.5999999642372131) {
                                            votes[2] += 1;
                                        }

                                        else {
                                            if (x[1] <= 3.100000023841858) {
                                                votes[1] += 1;
                                            }

                                            else {
                                                votes[2] += 1;
                                            }
                                        }
                                    }
                                }
                            }

                            else {
                                if (x[3] <= 1.75) {
                                    if (x[2] <= 5.049999952316284) {
                                        if (x[3] <= 1.600000023841858) {
                                            votes[1] += 1;
                                        }

                                        else {
                                            votes[2] += 1;
                                        }
                                    }

                                    else {
                                        if (x[1] <= 2.75) {
                                            if (x[2] <= 5.349999904632568) {
                                                votes[2] += 1;
                                            }

                                            else {
                                                votes[1] += 1;
                                            }
                                        }

                                        else {
                                            votes[1] += 1;
                                        }
                                    }
                                }

                                else {
                                    votes[1] += 1;
                                }
                            }
                        }

                        // tree #13
                        if (x[3] <= 0.75) {
                            votes[0] += 1;
                        }

                        else {
                            if (x[3] <= 1.75) {
                                if (x[1] <= 2.25) {
                                    if (x[3] <= 1.25) {
                                        votes[2] += 1;
                                    }

                                    else {
                                        if (x[2] <= 4.75) {
                                            votes[2] += 1;
                                        }

                                        else {
                                            votes[1] += 1;
                                        }
                                    }
                                }

                                else {
                                    votes[2] += 1;
                                }
                            }

                            else {
                                votes[1] += 1;
                            }
                        }

                        // tree #14
                        if (x[2] <= 2.449999988079071) {
                            votes[0] += 1;
                        }

                        else {
                            if (x[2] <= 4.950000047683716) {
                                if (x[0] <= 6.1499998569488525) {
                                    if (x[0] <= 4.950000047683716) {
                                        if (x[2] <= 3.899999976158142) {
                                            votes[2] += 1;
                                        }

                                        else {
                                            votes[1] += 1;
                                        }
                                    }

                                    else {
                                        if (x[3] <= 1.699999988079071) {
                                            votes[2] += 1;
                                        }

                                        else {
                                            if (x[1] <= 3.100000023841858) {
                                                votes[1] += 1;
                                            }

                                            else {
                                                votes[2] += 1;
                                            }
                                        }
                                    }
                                }

                                else {
                                    if (x[2] <= 4.75) {
                                        votes[2] += 1;
                                    }

                                    else {
                                        if (x[3] <= 1.649999976158142) {
                                            votes[2] += 1;
                                        }

                                        else {
                                            votes[1] += 1;
                                        }
                                    }
                                }
                            }

                            else {
                                if (x[2] <= 5.1499998569488525) {
                                    if (x[3] <= 1.75) {
                                        if (x[1] <= 2.450000047683716) {
                                            votes[1] += 1;
                                        }

                                        else {
                                            votes[2] += 1;
                                        }
                                    }

                                    else {
                                        votes[1] += 1;
                                    }
                                }

                                else {
                                    votes[1] += 1;
                                }
                            }
                        }

                        // tree #15
                        if (x[3] <= 0.800000011920929) {
                            votes[0] += 1;
                        }

                        else {
                            if (x[2] <= 4.75) {
                                votes[2] += 1;
                            }

                            else {
                                if (x[2] <= 5.1499998569488525) {
                                    if (x[1] <= 2.600000023841858) {
                                        votes[1] += 1;
                                    }

                                    else {
                                        if (x[3] <= 1.75) {
                                            votes[2] += 1;
                                        }

                                        else {
                                            votes[1] += 1;
                                        }
                                    }
                                }

                                else {
                                    votes[1] += 1;
                                }
                            }
                        }

                        // tree #16
                        if (x[0] <= 5.549999952316284) {
                            if (x[1] <= 2.8000000715255737) {
                                if (x[2] <= 4.450000047683716) {
                                    votes[2] += 1;
                                }

                                else {
                                    votes[1] += 1;
                                }
                            }

                            else {
                                if (x[3] <= 1.050000011920929) {
                                    votes[0] += 1;
                                }

                                else {
                                    votes[2] += 1;
                                }
                            }
                        }

                        else {
                            if (x[2] <= 5.049999952316284) {
                                if (x[1] <= 3.600000023841858) {
                                    if (x[1] <= 2.25) {
                                        if (x[2] <= 4.75) {
                                            votes[2] += 1;
                                        }

                                        else {
                                            votes[1] += 1;
                                        }
                                    }

                                    else {
                                        if (x[2] <= 4.75) {
                                            votes[2] += 1;
                                        }

                                        else {
                                            if (x[0] <= 6.25) {
                                                if (x[1] <= 3.100000023841858) {
                                                    votes[1] += 1;
                                                }

                                                else {
                                                    votes[2] += 1;
                                                }
                                            }

                                            else {
                                                votes[2] += 1;
                                            }
                                        }
                                    }
                                }

                                else {
                                    votes[0] += 1;
                                }
                            }

                            else {
                                if (x[1] <= 2.75) {
                                    if (x[3] <= 1.699999988079071) {
                                        votes[2] += 1;
                                    }

                                    else {
                                        votes[1] += 1;
                                    }
                                }

                                else {
                                    votes[1] += 1;
                                }
                            }
                        }

                        // tree #17
                        if (x[3] <= 0.800000011920929) {
                            votes[0] += 1;
                        }

                        else {
                            if (x[3] <= 1.75) {
                                if (x[0] <= 4.950000047683716) {
                                    if (x[1] <= 2.450000047683716) {
                                        votes[2] += 1;
                                    }

                                    else {
                                        votes[1] += 1;
                                    }
                                }

                                else {
                                    if (x[2] <= 4.849999904632568) {
                                        votes[2] += 1;
                                    }

                                    else {
                                        if (x[1] <= 2.450000047683716) {
                                            votes[1] += 1;
                                        }

                                        else {
                                            votes[2] += 1;
                                        }
                                    }
                                }
                            }

                            else {
                                if (x[2] <= 4.8500001430511475) {
                                    if (x[0] <= 6.049999952316284) {
                                        votes[2] += 1;
                                    }

                                    else {
                                        votes[1] += 1;
                                    }
                                }

                                else {
                                    votes[1] += 1;
                                }
                            }
                        }

                        // tree #18
                        if (x[2] <= 2.449999988079071) {
                            votes[0] += 1;
                        }

                        else {
                            if (x[0] <= 5.75) {
                                if (x[3] <= 1.600000023841858) {
                                    votes[2] += 1;
                                }

                                else {
                                    votes[1] += 1;
                                }
                            }

                            else {
                                if (x[0] <= 7.049999952316284) {
                                    if (x[3] <= 1.75) {
                                        if (x[2] <= 4.950000047683716) {
                                            votes[2] += 1;
                                        }

                                        else {
                                            if (x[3] <= 1.600000023841858) {
                                                votes[1] += 1;
                                            }

                                            else {
                                                votes[2] += 1;
                                            }
                                        }
                                    }

                                    else {
                                        if (x[0] <= 5.950000047683716) {
                                            if (x[1] <= 3.0) {
                                                votes[1] += 1;
                                            }

                                            else {
                                                votes[2] += 1;
                                            }
                                        }

                                        else {
                                            votes[1] += 1;
                                        }
                                    }
                                }

                                else {
                                    votes[1] += 1;
                                }
                            }
                        }

                        // tree #19
                        if (x[3] <= 0.800000011920929) {
                            votes[0] += 1;
                        }

                        else {
                            if (x[3] <= 1.75) {
                                if (x[0] <= 7.099999904632568) {
                                    if (x[0] <= 6.049999952316284) {
                                        votes[2] += 1;
                                    }

                                    else {
                                        if (x[1] <= 2.850000023841858) {
                                            if (x[1] <= 2.549999952316284) {
                                                votes[2] += 1;
                                            }

                                            else {
                                                if (x[2] <= 4.950000047683716) {
                                                    votes[2] += 1;
                                                }

                                                else {
                                                    votes[1] += 1;
                                                }
                                            }
                                        }

                                        else {
                                            votes[2] += 1;
                                        }
                                    }
                                }

                                else {
                                    votes[1] += 1;
                                }
                            }

                            else {
                                if (x[3] <= 1.8499999642372131) {
                                    if (x[1] <= 3.100000023841858) {
                                        votes[1] += 1;
                                    }

                                    else {
                                        if (x[0] <= 6.549999952316284) {
                                            votes[2] += 1;
                                        }

                                        else {
                                            votes[1] += 1;
                                        }
                                    }
                                }

                                else {
                                    votes[1] += 1;
                                }
                            }
                        }

                        // tree #20
                        if (x[3] <= 1.6500000357627869) {
                            if (x[0] <= 5.450000047683716) {
                                if (x[3] <= 0.75) {
                                    votes[0] += 1;
                                }

                                else {
                                    votes[2] += 1;
                                }
                            }

                            else {
                                if (x[1] <= 3.450000047683716) {
                                    if (x[1] <= 2.25) {
                                        if (x[2] <= 4.75) {
                                            votes[2] += 1;
                                        }

                                        else {
                                            votes[1] += 1;
                                        }
                                    }

                                    else {
                                        if (x[2] <= 5.25) {
                                            votes[2] += 1;
                                        }

                                        else {
                                            votes[1] += 1;
                                        }
                                    }
                                }

                                else {
                                    votes[0] += 1;
                                }
                            }
                        }

                        else {
                            if (x[2] <= 4.8500001430511475) {
                                if (x[1] <= 3.0) {
                                    votes[1] += 1;
                                }

                                else {
                                    votes[2] += 1;
                                }
                            }

                            else {
                                votes[1] += 1;
                            }
                        }

                        // tree #21
                        if (x[2] <= 4.75) {
                            if (x[2] <= 2.449999988079071) {
                                votes[0] += 1;
                            }

                            else {
                                votes[2] += 1;
                            }
                        }

                        else {
                            if (x[2] <= 4.950000047683716) {
                                if (x[1] <= 3.049999952316284) {
                                    if (x[3] <= 1.5999999642372131) {
                                        votes[2] += 1;
                                    }

                                    else {
                                        votes[1] += 1;
                                    }
                                }

                                else {
                                    votes[2] += 1;
                                }
                            }

                            else {
                                votes[1] += 1;
                            }
                        }

                        // tree #22
                        if (x[3] <= 0.800000011920929) {
                            votes[0] += 1;
                        }

                        else {
                            if (x[0] <= 6.25) {
                                if (x[2] <= 4.75) {
                                    votes[2] += 1;
                                }

                                else {
                                    if (x[1] <= 2.75) {
                                        votes[2] += 1;
                                    }

                                    else {
                                        votes[1] += 1;
                                    }
                                }
                            }

                            else {
                                if (x[3] <= 1.699999988079071) {
                                    if (x[0] <= 6.3500001430511475) {
                                        if (x[2] <= 5.0) {
                                            votes[2] += 1;
                                        }

                                        else {
                                            votes[1] += 1;
                                        }
                                    }

                                    else {
                                        votes[2] += 1;
                                    }
                                }

                                else {
                                    votes[1] += 1;
                                }
                            }
                        }

                        // tree #23
                        if (x[2] <= 2.449999988079071) {
                            votes[0] += 1;
                        }

                        else {
                            if (x[2] <= 4.8500001430511475) {
                                if (x[2] <= 4.75) {
                                    if (x[0] <= 4.950000047683716) {
                                        if (x[1] <= 2.450000047683716) {
                                            votes[2] += 1;
                                        }

                                        else {
                                            votes[1] += 1;
                                        }
                                    }

                                    else {
                                        votes[2] += 1;
                                    }
                                }

                                else {
                                    if (x[1] <= 2.899999976158142) {
                                        votes[2] += 1;
                                    }

                                    else {
                                        if (x[1] <= 3.100000023841858) {
                                            votes[1] += 1;
                                        }

                                        else {
                                            votes[2] += 1;
                                        }
                                    }
                                }
                            }

                            else {
                                if (x[3] <= 1.75) {
                                    if (x[2] <= 5.049999952316284) {
                                        if (x[0] <= 6.349999904632568) {
                                            votes[1] += 1;
                                        }

                                        else {
                                            votes[2] += 1;
                                        }
                                    }

                                    else {
                                        votes[1] += 1;
                                    }
                                }

                                else {
                                    votes[1] += 1;
                                }
                            }
                        }

                        // tree #24
                        if (x[3] <= 0.75) {
                            votes[0] += 1;
                        }

                        else {
                            if (x[0] <= 5.75) {
                                if (x[3] <= 1.75) {
                                    votes[2] += 1;
                                }

                                else {
                                    votes[1] += 1;
                                }
                            }

                            else {
                                if (x[3] <= 1.75) {
                                    if (x[0] <= 6.949999809265137) {
                                        if (x[1] <= 2.6999999284744263) {
                                            if (x[3] <= 1.199999988079071) {
                                                votes[2] += 1;
                                            }

                                            else {
                                                if (x[2] <= 4.950000047683716) {
                                                    votes[2] += 1;
                                                }

                                                else {
                                                    votes[1] += 1;
                                                }
                                            }
                                        }

                                        else {
                                            if (x[2] <= 5.049999952316284) {
                                                votes[2] += 1;
                                            }

                                            else {
                                                votes[1] += 1;
                                            }
                                        }
                                    }

                                    else {
                                        votes[1] += 1;
                                    }
                                }

                                else {
                                    if (x[2] <= 4.8500001430511475) {
                                        votes[2] += 1;
                                    }

                                    else {
                                        votes[1] += 1;
                                    }
                                }
                            }
                        }

                        // tree #25
                        if (x[2] <= 2.599999964237213) {
                            votes[0] += 1;
                        }

                        else {
                            if (x[3] <= 1.75) {
                                if (x[3] <= 1.449999988079071) {
                                    votes[2] += 1;
                                }

                                else {
                                    if (x[2] <= 4.849999904632568) {
                                        votes[2] += 1;
                                    }

                                    else {
                                        if (x[3] <= 1.600000023841858) {
                                            votes[1] += 1;
                                        }

                                        else {
                                            votes[2] += 1;
                                        }
                                    }
                                }
                            }

                            else {
                                if (x[2] <= 4.8500001430511475) {
                                    if (x[0] <= 6.049999952316284) {
                                        votes[2] += 1;
                                    }

                                    else {
                                        votes[1] += 1;
                                    }
                                }

                                else {
                                    votes[1] += 1;
                                }
                            }
                        }

                        // tree #26
                        if (x[3] <= 0.800000011920929) {
                            votes[0] += 1;
                        }

                        else {
                            if (x[2] <= 4.75) {
                                if (x[0] <= 4.950000047683716) {
                                    votes[1] += 1;
                                }

                                else {
                                    votes[2] += 1;
                                }
                            }

                            else {
                                if (x[0] <= 7.0) {
                                    if (x[3] <= 1.75) {
                                        if (x[0] <= 6.5) {
                                            votes[1] += 1;
                                        }

                                        else {
                                            votes[2] += 1;
                                        }
                                    }

                                    else {
                                        if (x[2] <= 4.8500001430511475) {
                                            if (x[0] <= 5.950000047683716) {
                                                votes[2] += 1;
                                            }

                                            else {
                                                votes[1] += 1;
                                            }
                                        }

                                        else {
                                            votes[1] += 1;
                                        }
                                    }
                                }

                                else {
                                    votes[1] += 1;
                                }
                            }
                        }

                        // tree #27
                        if (x[3] <= 0.800000011920929) {
                            votes[0] += 1;
                        }

                        else {
                            if (x[0] <= 6.1499998569488525) {
                                if (x[2] <= 4.8500001430511475) {
                                    votes[2] += 1;
                                }

                                else {
                                    votes[1] += 1;
                                }
                            }

                            else {
                                if (x[1] <= 2.549999952316284) {
                                    votes[2] += 1;
                                }

                                else {
                                    if (x[2] <= 5.049999952316284) {
                                        if (x[0] <= 6.299999952316284) {
                                            votes[1] += 1;
                                        }

                                        else {
                                            votes[2] += 1;
                                        }
                                    }

                                    else {
                                        votes[1] += 1;
                                    }
                                }
                            }
                        }

                        // tree #28
                        if (x[2] <= 2.449999988079071) {
                            votes[0] += 1;
                        }

                        else {
                            if (x[3] <= 1.6500000357627869) {
                                if (x[2] <= 4.950000047683716) {
                                    votes[2] += 1;
                                }

                                else {
                                    votes[1] += 1;
                                }
                            }

                            else {
                                if (x[3] <= 1.8499999642372131) {
                                    if (x[1] <= 3.149999976158142) {
                                        if (x[3] <= 1.75) {
                                            if (x[2] <= 4.75) {
                                                votes[1] += 1;
                                            }

                                            else {
                                                votes[2] += 1;
                                            }
                                        }

                                        else {
                                            votes[1] += 1;
                                        }
                                    }

                                    else {
                                        votes[2] += 1;
                                    }
                                }

                                else {
                                    votes[1] += 1;
                                }
                            }
                        }

                        // tree #29
                        if (x[3] <= 0.75) {
                            votes[0] += 1;
                        }

                        else {
                            if (x[3] <= 1.75) {
                                if (x[2] <= 4.950000047683716) {
                                    if (x[3] <= 1.6500000357627869) {
                                        votes[2] += 1;
                                    }

                                    else {
                                        votes[1] += 1;
                                    }
                                }

                                else {
                                    if (x[2] <= 5.349999904632568) {
                                        if (x[3] <= 1.550000011920929) {
                                            votes[1] += 1;
                                        }

                                        else {
                                            votes[2] += 1;
                                        }
                                    }

                                    else {
                                        votes[1] += 1;
                                    }
                                }
                            }

                            else {
                                if (x[0] <= 5.950000047683716) {
                                    if (x[2] <= 4.8500001430511475) {
                                        votes[2] += 1;
                                    }

                                    else {
                                        votes[1] += 1;
                                    }
                                }

                                else {
                                    votes[1] += 1;
                                }
                            }
                        }

                        // tree #30
                        if (x[3] <= 0.800000011920929) {
                            votes[0] += 1;
                        }

                        else {
                            if (x[0] <= 6.75) {
                                if (x[2] <= 4.75) {
                                    if (x[3] <= 1.6500000357627869) {
                                        votes[2] += 1;
                                    }

                                    else {
                                        votes[1] += 1;
                                    }
                                }

                                else {
                                    if (x[1] <= 2.75) {
                                        if (x[0] <= 5.900000095367432) {
                                            votes[1] += 1;
                                        }

                                        else {
                                            if (x[2] <= 5.349999904632568) {
                                                if (x[1] <= 2.350000023841858) {
                                                    votes[1] += 1;
                                                }

                                                else {
                                                    votes[2] += 1;
                                                }
                                            }

                                            else {
                                                votes[1] += 1;
                                            }
                                        }
                                    }

                                    else {
                                        if (x[2] <= 5.049999952316284) {
                                            if (x[0] <= 6.449999809265137) {
                                                if (x[0] <= 5.950000047683716) {
                                                    votes[2] += 1;
                                                }

                                                else {
                                                    votes[1] += 1;
                                                }
                                            }

                                            else {
                                                votes[2] += 1;
                                            }
                                        }

                                        else {
                                            votes[1] += 1;
                                        }
                                    }
                                }
                            }

                            else {
                                if (x[3] <= 1.550000011920929) {
                                    votes[2] += 1;
                                }

                                else {
                                    votes[1] += 1;
                                }
                            }
                        }

                        // return argmax of votes
                        uint8_t classIdx = 0;
                        float maxVotes = votes[0];

                        for (uint8_t i = 1; i < 3; i++) {
                            if (votes[i] > maxVotes) {
                                classIdx = i;
                                maxVotes = votes[i];
                            }
                        }

                        return classIdx;
                    }

                    /**
                    * Predict readable class name
                    */
                    const char* predictLabel(float *x) {
                        return idxToLabel(predict(x));
                    }

                    /**
                    * Convert class idx to readable name
                    */
                    const char* idxToLabel(uint8_t classIdx) {
                        switch (classIdx) {
                            case 0:
                            return "Setosa";
                            case 1:
                            return "Virginica";
                            case 2:
                            return "Versicolor";
                            default:
                            return "Houston we have a problem";
                        }
                    }

                protected:
                };
            }
        }
    }